digraph Tree {
node [shape=box, style="filled, rounded", color="black", fontname=helvetica] ;
edge [fontname=helvetica] ;
0 [label="petal width (cm) <= 0.8\ngini = 0.66\nsamples = 94\nvalue = [55, 47, 48]\nclass = setosa", fillcolor="#fdf6f1"] ;
1 [label="gini = 0.0\nsamples = 33\nvalue = [55, 0, 0]\nclass = setosa", fillcolor="#e58139"] ;
0 -> 1 [labeldistance=2.5, labelangle=45, headlabel="True"] ;
2 [label="petal length (cm) <= 4.75\ngini = 0.5\nsamples = 61\nvalue = [0, 47, 48]\nclass = virginica", fillcolor="#fcfbfe"] ;
0 -> 2 [labeldistance=2.5, labelangle=-45, headlabel="False"] ;
3 [label="sepal width (cm) <= 2.55\ngini = 0.04\nsamples = 27\nvalue = [0, 45, 1]\nclass = versicolor", fillcolor="#3de684"] ;
2 -> 3 ;
4 [label="petal width (cm) <= 1.6\ngini = 0.13\nsamples = 8\nvalue = [0, 13, 1]\nclass = versicolor", fillcolor="#48e78b"] ;
3 -> 4 ;
5 [label="gini = 0.0\nsamples = 7\nvalue = [0, 13, 0]\nclass = versicolor", fillcolor="#39e581"] ;
4 -> 5 ;
6 [label="gini = 0.0\nsamples = 1\nvalue = [0, 0, 1]\nclass = virginica", fillcolor="#8139e5"] ;
4 -> 6 ;
7 [label="gini = 0.0\nsamples = 19\nvalue = [0, 32, 0]\nclass = versicolor", fillcolor="#39e581"] ;
3 -> 7 ;
8 [label="petal width (cm) <= 1.7\ngini = 0.08\nsamples = 34\nvalue = [0, 2, 47]\nclass = virginica", fillcolor="#8641e6"] ;
2 -> 8 ;
9 [label="sepal width (cm) <= 2.65\ngini = 0.41\nsamples = 6\nvalue = [0, 2, 5]\nclass = virginica", fillcolor="#b388ef"] ;
8 -> 9 ;
10 [label="gini = 0.0\nsamples = 2\nvalue = [0, 0, 2]\nclass = virginica", fillcolor="#8139e5"] ;
9 -> 10 ;
11 [label="petal length (cm) <= 5.45\ngini = 0.48\nsamples = 4\nvalue = [0, 2, 3]\nclass = virginica", fillcolor="#d5bdf6"] ;
9 -> 11 ;
12 [label="petal width (cm) <= 1.45\ngini = 0.44\nsamples = 3\nvalue = [0, 2, 1]\nclass = versicolor", fillcolor="#9cf2c0"] ;
11 -> 12 ;
13 [label="gini = 0.0\nsamples = 1\nvalue = [0, 1, 0]\nclass = versicolor", fillcolor="#39e581"] ;
12 -> 13 ;
14 [label="sepal length (cm) <= 6.15\ngini = 0.5\nsamples = 2\nvalue = [0, 1, 1]\nclass = versicolor", fillcolor="#ffffff"] ;
12 -> 14 ;
15 [label="gini = 0.0\nsamples = 1\nvalue = [0, 1, 0]\nclass = versicolor", fillcolor="#39e581"] ;
14 -> 15 ;
16 [label="gini = 0.0\nsamples = 1\nvalue = [0, 0, 1]\nclass = virginica", fillcolor="#8139e5"] ;
14 -> 16 ;
17 [label="gini = 0.0\nsamples = 1\nvalue = [0, 0, 2]\nclass = virginica", fillcolor="#8139e5"] ;
11 -> 17 ;
18 [label="gini = 0.0\nsamples = 28\nvalue = [0, 0, 42]\nclass = virginica", fillcolor="#8139e5"] ;
8 -> 18 ;
}